<?xml version="1.0"?>
<opencv_storage>
<stage2>
  <maxWeakCount>7</maxWeakCount>
  <stageThreshold>1.8379928171634674e-01</stageThreshold>
  <weakClassifiers>
    <_>
      <internalNodes>
        0 -1 106058 1.1924959719181061e-02</internalNodes>
      <leafValues>
        -9.2797785997390747e-01 5.2425664663314819e-01</leafValues></_>
    <_>
      <internalNodes>
        0 -1 121524 1.8870359781431034e-05</internalNodes>
      <leafValues>
        4.1071000695228577e-01 -1.</leafValues></_>
    <_>
      <internalNodes>
        0 -1 53715 -6.3443668186664581e-03</internalNodes>
      <leafValues>
        8.8654959201812744e-01 -6.0035723447799683e-01</leafValues></_>
    <_>
      <internalNodes>
        0 -1 74026 3.0184533447027206e-02</internalNodes>
      <leafValues>
        5.5588465929031372e-01 -9.7070842981338501e-01</leafValues></_>
    <_>
      <internalNodes>
        0 -1 514 1.0742779821157455e-02</internalNodes>
      <leafValues>
        -9.3747711181640625e-01 4.1338765621185303e-01</leafValues></_>
    <_>
      <internalNodes>
        0 -1 49555 -6.2336236238479614e-02</internalNodes>
      <leafValues>
        1. -4.8790782690048218e-01</leafValues></_>
    <_>
      <internalNodes>
        0 -1 109346 -6.5355477854609489e-03</internalNodes>
      <leafValues>
        9.5070278644561768e-01 -5.9248840808868408e-01</leafValues></_></weakClassifiers></stage2>
</opencv_storage>
