<?xml version="1.0"?>
<opencv_storage>
<stage0>
  <maxWeakCount>7</maxWeakCount>
  <stageThreshold>-3.9130979776382446e-01</stageThreshold>
  <weakClassifiers>
    <_>
      <internalNodes>
        0 -1 61276 3.9465413428843021e-03</internalNodes>
      <leafValues>
        -5.5591052770614624e-01 9.3048125505447388e-01</leafValues></_>
    <_>
      <internalNodes>
        0 -1 84176 1.3453144580125809e-02</internalNodes>
      <leafValues>
        -5.9229391813278198e-01 8.4432035684585571e-01</leafValues></_>
    <_>
      <internalNodes>
        0 -1 9444 1.8960347399115562e-02</internalNodes>
      <leafValues>
        -9.1188502311706543e-01 5.9438127279281616e-01</leafValues></_>
    <_>
      <internalNodes>
        0 -1 69940 -1.9355244934558868e-02</internalNodes>
      <leafValues>
        6.6381931304931641e-01 -7.0172703266143799e-01</leafValues></_>
    <_>
      <internalNodes>
        0 -1 86239 -6.4912158995866776e-03</internalNodes>
      <leafValues>
        9.9665081501007080e-01 -5.3388500213623047e-01</leafValues></_>
    <_>
      <internalNodes>
        0 -1 71252 4.9656014889478683e-03</internalNodes>
      <leafValues>
        -5.3691935539245605e-01 9.4148135185241699e-01</leafValues></_>
    <_>
      <internalNodes>
        0 -1 110658 1.6627798686386086e-05</internalNodes>
      <leafValues>
        5.9736400842666626e-01 -9.8190712928771973e-01</leafValues></_></weakClassifiers></stage0>
</opencv_storage>
