<?xml version="1.0"?>
<opencv_storage>
<cascade>
  <stageType>BOOST</stageType>
  <featureType>HAAR</featureType>
  <height>20</height>
  <width>20</width>
  <stageParams>
    <boostType>GAB</boostType>
    <minHitRate>9.9900001287460327e-01</minHitRate>
    <maxFalseAlarm>5.0000000745058060e-02</maxFalseAlarm>
    <weightTrimRate>9.4999999999999996e-01</weightTrimRate>
    <maxDepth>1</maxDepth>
    <maxWeakCount>100</maxWeakCount></stageParams>
  <featureParams>
    <maxCatCount>0</maxCatCount>
    <featSize>1</featSize>
    <mode>ALL</mode></featureParams>
  <stageNum>3</stageNum>
  <stages>
    <!-- stage 0 -->
    <_>
      <maxWeakCount>6</maxWeakCount>
      <stageThreshold>-1.1991348266601562e+00</stageThreshold>
      <weakClassifiers>
        <_>
          <internalNodes>
            0 -1 12 1.4668134972453117e-02</internalNodes>
          <leafValues>
            -6.5714287757873535e-01 8.3636361360549927e-01</leafValues></_>
        <_>
          <internalNodes>
            0 -1 3 3.9251269772648811e-03</internalNodes>
          <leafValues>
            -5.6824970245361328e-01 9.2742490768432617e-01</leafValues></_>
        <_>
          <internalNodes>
            0 -1 0 4.3280228972434998e-02</internalNodes>
          <leafValues>
            -9.8380178213119507e-01 5.8520549535751343e-01</leafValues></_>
        <_>
          <internalNodes>
            0 -1 7 1.2090432457625866e-02</internalNodes>
          <leafValues>
            -9.2050051689147949e-01 4.3741938471794128e-01</leafValues></_>
        <_>
          <internalNodes>
            0 -1 11 4.6368916518986225e-03</internalNodes>
          <leafValues>
            -5.4594552516937256e-01 9.1062760353088379e-01</leafValues></_>
        <_>
          <internalNodes>
            0 -1 10 -1.8047599121928215e-02</internalNodes>
          <leafValues>
            9.9131184816360474e-01 -5.4907476902008057e-01</leafValues></_></weakClassifiers></_>
    <!-- stage 1 -->
    <_>
      <maxWeakCount>6</maxWeakCount>
      <stageThreshold>-1.1495074033737183e+00</stageThreshold>
      <weakClassifiers>
        <_>
          <internalNodes>
            0 -1 2 3.0028816312551498e-02</internalNodes>
          <leafValues>
            5.8872306346893311e-01 -8.9420652389526367e-01</leafValues></_>
        <_>
          <internalNodes>
            0 -1 13 2.5159930810332298e-03</internalNodes>
          <leafValues>
            -6.2704962491989136e-01 8.6000764369964600e-01</leafValues></_>
        <_>
          <internalNodes>
            0 -1 5 3.8958503864705563e-03</internalNodes>
          <leafValues>
            -6.4480137825012207e-01 8.5837393999099731e-01</leafValues></_>
        <_>
          <internalNodes>
            0 -1 16 -2.4397528250119649e-05</internalNodes>
          <leafValues>
            -1. 5.0761777162551880e-01</leafValues></_>
        <_>
          <internalNodes>
            0 -1 4 -5.5818920955061913e-03</internalNodes>
          <leafValues>
            9.4641822576522827e-01 -4.8865509033203125e-01</leafValues></_>
        <_>
          <internalNodes>
            0 -1 6 -1.8856808543205261e-02</internalNodes>
          <leafValues>
            9.5543593168258667e-01 -5.0558793544769287e-01</leafValues></_></weakClassifiers></_>
    <!-- stage 2 -->
    <_>
      <maxWeakCount>6</maxWeakCount>
      <stageThreshold>2.6892542839050293e-01</stageThreshold>
      <weakClassifiers>
        <_>
          <internalNodes>
            0 -1 14 4.7397324815392494e-03</internalNodes>
          <leafValues>
            -5.4635763168334961e-01 8.3333331346511841e-01</leafValues></_>
        <_>
          <internalNodes>
            0 -1 1 2.0283043384552002e-02</internalNodes>
          <leafValues>
            5.5856961011886597e-01 -9.1598647832870483e-01</leafValues></_>
        <_>
          <internalNodes>
            0 -1 15 4.0631350129842758e-03</internalNodes>
          <leafValues>
            -5.4783272743225098e-01 7.6735490560531616e-01</leafValues></_>
        <_>
          <internalNodes>
            0 -1 17 6.8404726334847510e-05</internalNodes>
          <leafValues>
            4.7642725706100464e-01 -9.2664349079132080e-01</leafValues></_>
        <_>
          <internalNodes>
            0 -1 8 -1.9713282585144043e-02</internalNodes>
          <leafValues>
            9.4918602705001831e-01 -4.8476999998092651e-01</leafValues></_>
        <_>
          <internalNodes>
            0 -1 9 1.0413877665996552e-02</internalNodes>
          <leafValues>
            -5.0229877233505249e-01 9.7437989711761475e-01</leafValues></_></weakClassifiers></_></stages>
  <features>
    <_>
      <rects>
        <_>
          0 0 20 20 -1.</_>
        <_>
          5 0 10 20 2.</_></rects>
      <tilted>0</tilted></_>
    <_>
      <rects>
        <_>
          1 5 12 6 -1.</_>
        <_>
          7 5 6 6 2.</_></rects>
      <tilted>0</tilted></_>
    <_>
      <rects>
        <_>
          2 4 16 12 -1.</_>
        <_>
          6 4 8 12 2.</_></rects>
      <tilted>0</tilted></_>
    <_>
      <rects>
        <_>
          6 8 3 1 -1.</_>
        <_>
          7 8 1 1 3.</_></rects>
      <tilted>0</tilted></_>
    <_>
      <rects>
        <_>
          6 10 1 3 -1.</_>
        <_>
          6 11 1 1 3.</_></rects>
      <tilted>0</tilted></_>
    <_>
      <rects>
        <_>
          7 6 3 1 -1.</_>
        <_>
          8 6 1 1 3.</_></rects>
      <tilted>0</tilted></_>
    <_>
      <rects>
        <_>
          7 10 10 2 -1.</_>
        <_>
          7 10 5 1 2.</_>
        <_>
          12 11 5 1 2.</_></rects>
      <tilted>0</tilted></_>
    <_>
      <rects>
        <_>
          8 0 12 19 -1.</_>
        <_>
          11 0 6 19 2.</_></rects>
      <tilted>0</tilted></_>
    <_>
      <rects>
        <_>
          8 6 2 12 -1.</_>
        <_>
          8 6 1 6 2.</_>
        <_>
          9 12 1 6 2.</_></rects>
      <tilted>0</tilted></_>
    <_>
      <rects>
        <_>
          8 12 3 2 -1.</_>
        <_>
          9 12 1 2 3.</_></rects>
      <tilted>0</tilted></_>
    <_>
      <rects>
        <_>
          8 12 3 8 -1.</_>
        <_>
          9 12 1 8 3.</_></rects>
      <tilted>0</tilted></_>
    <_>
      <rects>
        <_>
          9 7 3 1 -1.</_>
        <_>
          10 7 1 1 3.</_></rects>
      <tilted>0</tilted></_>
    <_>
      <rects>
        <_>
          9 7 3 3 -1.</_>
        <_>
          10 8 1 1 9.</_></rects>
      <tilted>0</tilted></_>
    <_>
      <rects>
        <_>
          9 10 1 2 -1.</_>
        <_>
          9 11 1 1 2.</_></rects>
      <tilted>0</tilted></_>
    <_>
      <rects>
        <_>
          10 5 3 1 -1.</_>
        <_>
          11 5 1 1 3.</_></rects>
      <tilted>0</tilted></_>
    <_>
      <rects>
        <_>
          10 13 3 1 -1.</_>
        <_>
          11 13 1 1 3.</_></rects>
      <tilted>0</tilted></_>
    <_>
      <rects>
        <_>
          19 0 1 4 -1.</_>
        <_>
          19 2 1 2 2.</_></rects>
      <tilted>0</tilted></_>
    <_>
      <rects>
        <_>
          19 1 1 2 -1.</_>
        <_>
          19 2 1 1 2.</_></rects>
      <tilted>0</tilted></_></features></cascade>
</opencv_storage>
