<?xml version="1.0"?>
<opencv_storage>
<stage0>
  <maxWeakCount>6</maxWeakCount>
  <stageThreshold>-1.1991348266601562e+00</stageThreshold>
  <weakClassifiers>
    <_>
      <internalNodes>
        0 -1 84176 1.4668134972453117e-02</internalNodes>
      <leafValues>
        -6.5714287757873535e-01 8.3636361360549927e-01</leafValues></_>
    <_>
      <internalNodes>
        0 -1 61276 3.9251269772648811e-03</internalNodes>
      <leafValues>
        -5.6824970245361328e-01 9.2742490768432617e-01</leafValues></_>
    <_>
      <internalNodes>
        0 -1 484 4.3280228972434998e-02</internalNodes>
      <leafValues>
        -9.8380178213119507e-01 5.8520549535751343e-01</leafValues></_>
    <_>
      <internalNodes>
        0 -1 72474 1.2090432457625866e-02</internalNodes>
      <leafValues>
        -9.2050051689147949e-01 4.3741938471794128e-01</leafValues></_>
    <_>
      <internalNodes>
        0 -1 84171 4.6368916518986225e-03</internalNodes>
      <leafValues>
        -5.4594552516937256e-01 9.1062760353088379e-01</leafValues></_>
    <_>
      <internalNodes>
        0 -1 78978 -1.8047599121928215e-02</internalNodes>
      <leafValues>
        9.9131184816360474e-01 -5.4907476902008057e-01</leafValues></_></weakClassifiers></stage0>
</opencv_storage>
